{"model_data": {"model": "SimpleRNN", "input_size": 1, "skip": 1, "output_size": 1, "unit_type": "GRU", "num_layers": 1, "hidden_size": 8, "bias_fl": true}, "state_dict": {"rec.weight_ih_l0": [[-0.0007144169649109244], [0.06359118223190308], [0.23053017258644104], [-0.632256269454956], [0.5590395331382751], [0.07737994194030762], [0.3888283967971802], [-1.022405743598938], [0.02470877207815647], [-0.06167702376842499], [-0.08080141991376877], [0.017510388046503067], [0.0624082051217556], [-0.21744318306446075], [-0.5145841836929321], [-0.03139225021004677], [-0.8735204935073853], [1.580575704574585], [0.9954778552055359], [-0.6146762371063232], [0.9622260332107544], [1.046891450881958], [-1.4439496994018555], [-0.680897057056427]], "rec.weight_hh_l0": [[-0.01294019352644682, 0.0729946717619896, 0.021856950595974922, 0.11617551743984222, -0.05204673483967781, 0.04941372945904732, 0.3895705044269562, 0.012946970760822296], [-0.059914056211709976, -0.07579915225505829, -0.1473567634820938, -0.07579405605792999, -0.2252967655658722, 0.3111969530582428, 0.11709997802972794, 0.4407503306865692], [-0.14035464823246002, 0.0805833488702774, -0.2588426470756531, 0.44586944580078125, -0.3742307722568512, 0.3756464123725891, -0.4446476995944977, 0.6009695529937744], [0.7482022643089294, -0.8876248002052307, -1.262624740600586, 1.31369149684906, -0.6618766188621521, -0.7548366189002991, -0.3171934485435486, 0.6330556869506836], [-0.3679669499397278, 0.4833119511604309, 0.1129026710987091, 0.031563639640808105, -0.16094852983951569, 0.5942959785461426, -0.43610554933547974, 0.47744661569595337], [0.012729719281196594, -0.12938523292541504, -0.2435053586959839, 0.18245992064476013, -0.1861553192138672, 0.0936097800731659, -0.10977257043123245, 0.18695521354675293], [-0.36286425590515137, 0.680063784122467, 0.5228455662727356, -0.1568363606929779, 0.3193430006504059, -0.1481180340051651, -0.774324893951416, 0.10117056220769882], [0.14263033866882324, -0.10952351242303848, -0.08753667026758194, 0.33969730138778687, 0.1606677621603012, 0.35151803493499756, -1.0028772354125977, 0.7881065607070923], [-0.028486182913184166, 0.08180540055036545, 0.12143129855394363, -0.07702209800481796, 0.2013835906982422, -0.051121558994054794, 0.07031244039535522, -0.13311469554901123], [0.0255030058324337, -0.001016875496134162, -0.03935505077242851, 0.06323128193616867, 0.002686997875571251, -0.0018775344360619783, 0.29801222681999207, 0.03930819779634476], [0.048015668988227844, -0.03871740400791168, -0.0655631348490715, 0.12575389444828033, 0.023908257484436035, -0.06544709205627441, 0.194728821516037, 0.040859729051589966], [-0.011196976527571678, -0.0024229255504906178, -0.05497456341981888, 0.11343508958816528, -0.02828526310622692, 0.041288260370492935, 0.06686608493328094, 0.10779128223657608], [0.022282849997282028, -0.06439369916915894, -0.04644729569554329, 0.15062078833580017, 0.030874211341142654, -0.0627300962805748, 0.11277458071708679, 0.10212848335504532], [-0.07122661918401718, -0.06749097257852554, 0.006262440234422684, -0.046413522213697433, -0.033740878105163574, 0.1104109063744545, 0.050729550421237946, 0.0788416936993599], [-1.0125190019607544, 0.31405702233314514, 0.41811925172805786, 1.8452824354171753, 1.0506165027618408, -1.683394432067871, -0.9366893172264099, 0.4448053240776062], [0.14302793145179749, -0.17328868806362152, -0.15775135159492493, 0.10077949613332748, -0.06022138521075249, -0.13268794119358063, 0.13968782126903534, 0.06311672180891037], [0.02768387459218502, -0.3832445442676544, 0.12624520063400269, -0.07516457140445709, -0.10197703540325165, -0.2409467250108719, -0.1653175950050354, -0.13189780712127686], [0.16468402743339539, -0.4354938864707947, -0.09343644976615906, 0.48145028948783875, -0.15493646264076233, -0.009747935459017754, 0.5671383142471313, -0.32600629329681396], [0.25674179196357727, 0.10060561448335648, 0.024194195866584778, -0.31976544857025146, -0.17500366270542145, -0.020831981673836708, 0.5198176503181458, -0.5184386968612671], [-0.2170795053243637, 0.189336359500885, -0.3811779022216797, 0.3781684637069702, 0.07812325656414032, 0.5100376605987549, -0.9417567253112793, 0.6722831130027771], [0.27956247329711914, -0.361255019903183, 0.33240899443626404, 0.22098861634731293, -0.02770497463643551, -0.2974403202533722, 0.6759955883026123, -0.2529081702232361], [-0.2612188756465912, 0.09034720063209534, 0.21642985939979553, -0.13800573348999023, -0.039184823632240295, 0.03632412850856781, -0.15463890135288239, 0.34690263867378235], [0.263166218996048, -0.7243216633796692, -0.6278016567230225, 0.024880623444914818, -0.008271167986094952, -0.3843763768672943, 0.8826505541801453, 0.2641395032405853], [-0.0867186114192009, 0.6945809125900269, 0.46121254563331604, 0.338029146194458, -0.10272238403558731, 0.2657615542411804, -0.7893807291984558, 0.11099016666412354]], "rec.bias_ih_l0": [-0.1807442456483841, -0.10034167766571045, -0.13903659582138062, -0.16553114354610443, 0.27042970061302185, -0.4031319320201874, 0.5212000608444214, 0.07474727928638458, 0.08650238811969757, -0.6270446181297302, -0.3947860896587372, -0.23337991535663605, -0.2137475609779358, 0.09858153015375137, 1.5867196321487427, -0.303596168756485, -0.06039552390575409, 0.04540667310357094, 0.15268661081790924, -0.030222749337553978, 0.3662404716014862, -0.045066699385643005, -0.10353008657693863, -0.393838495016098], "rec.bias_hh_l0": [-0.19397245347499847, -0.05938686430454254, -0.30208438634872437, -0.14374449849128723, 0.24618178606033325, -0.38986849784851074, 0.23286813497543335, 0.11886438727378845, 0.08650103956460953, -0.6268796324729919, -0.39485475420951843, -0.23260919749736786, -0.21376024186611176, 0.10479641705751419, 1.9454587697982788, -0.3034832179546356, -0.217068150639534, 0.3636949062347412, 0.35749557614326477, -0.3695645332336426, 0.06450827419757843, -0.17392943799495697, -0.07708961516618729, 0.06338325142860413], "lin.weight": [[0.2725571393966675, -0.7701728940010071, -0.3949679136276245, 0.1652897298336029, -0.5147003531455994, -0.21218033134937286, 0.12455040961503983, 0.23205456137657166]], "lin.bias": [0.2365192174911499]}}