{"model_data": {"model": "SimpleRNN", "input_size": 1, "skip": 1, "output_size": 1, "unit_type": "LSTM", "num_layers": 1, "hidden_size": 7, "bias_fl": true}, "state_dict": {"rec.weight_ih_l0": [[0.03783329576253891], [-0.11116715520620346], [-0.3772386610507965], [0.3995867371559143], [0.0890243798494339], [-0.1082409992814064], [-0.2392032891511917], [-0.14042259752750397], [0.25542277097702026], [-0.3141425848007202], [0.32657116651535034], [0.10791105777025223], [0.07628342509269714], [0.6475254893302917], [-1.5965602397918701], [0.20927591621875763], [0.36502355337142944], [0.7854008078575134], [-0.5425933003425598], [0.31193071603775024], [0.32591021060943604], [-0.009485103189945221], [-0.21157601475715637], [-0.26801156997680664], [0.347307413816452], [0.06156636029481888], [-0.12807153165340424], [1.3619368076324463]], "rec.weight_hh_l0": [[0.017622562125325203, 0.16856937110424042, -0.2772311270236969, 0.10599078983068466, -0.01842089742422104, 0.02481771819293499, 0.10715487599372864], [0.03814704716205597, -0.0815165713429451, 0.9098371267318726, -0.0873761847615242, 0.2667958736419678, 0.023622682318091393, -1.867466926574707], [0.17570124566555023, 0.0665927454829216, 0.19597592949867249, -0.08800604939460754, -0.15942107141017914, 0.09239163249731064, -0.08647241443395615], [-0.18814578652381897, -0.08745349198579788, 0.36840134859085083, -0.017042197287082672, 0.010006983764469624, -0.04848090186715126, -0.4822126030921936], [-0.04052174463868141, 0.02252127230167389, 0.11293225735425949, 0.030461324378848076, 0.003353597829118371, 0.03490949049592018, -0.10220799595117569], [0.2163277119398117, -0.2279912531375885, 0.2551584541797638, -0.11017114669084549, 0.12395507097244263, -0.12362583726644516, -0.7336958646774292], [-0.07358755171298981, -0.2036716639995575, -0.13175956904888153, 0.4215005934238434, 0.0744268149137497, 0.3662314713001251, -0.02542773447930813], [0.09579604119062424, 0.05148143321275711, -0.3464454114437103, 0.08469310402870178, 0.003874847199767828, -0.14188554883003235, -0.06317795813083649], [0.1950424313545227, 1.3022328615188599, 0.036987777799367905, -0.7831995487213135, 0.4671386182308197, -0.9806791543960571, -0.35371848940849304], [0.32667189836502075, -0.27166494727134705, -0.068590447306633, -0.21856428682804108, 0.051550231873989105, 0.2168472707271576, -0.003350686514750123], [-0.09458804130554199, -0.03904320299625397, 0.12921889126300812, -0.05445380136370659, 0.026975080370903015, -0.0314941480755806, -0.23779310286045074], [-0.03249800577759743, 0.03891373053193092, 0.036832842975854874, 0.012776068411767483, 0.0030077476985752583, 0.020789984613656998, -0.023393359035253525], [0.22881636023521423, 0.6212775111198425, -0.7729108929634094, 0.14741933345794678, -0.11850186437368393, -0.09862211346626282, 1.1669096946716309], [0.5652371048927307, -0.33207204937934875, -0.2935352027416229, -0.11518935114145279, 0.4120624363422394, 0.3281702399253845, -0.18378496170043945], [-0.7703571319580078, -0.04179760441184044, 1.8127552270889282, -0.011708158068358898, -0.4153134822845459, -0.4295976459980011, 0.06895428150892258], [0.7190967202186584, 0.8570971488952637, -0.33106449246406555, -0.2580699622631073, 0.19320563971996307, -0.37797635793685913, -0.34992715716362], [-0.47296732664108276, 0.08176140487194061, 0.012971363961696625, 0.23479466140270233, -0.005253016948699951, -0.004423630889505148, -0.2824786305427551], [0.275337278842926, 0.5811464786529541, 0.04557681456208229, 0.1441788226366043, -0.19114452600479126, 0.26732757687568665, 0.7776626944541931], [0.145819291472435, -0.2558708190917969, 0.193283349275589, 0.1128016784787178, -0.052496593445539474, -0.09395713359117508, -0.6710296869277954], [0.45853596925735474, 0.6621557474136353, -0.2139103263616562, -0.8373467922210693, 0.40520426630973816, 0.4471513032913208, -0.5224465727806091], [-0.20259137451648712, 0.511496365070343, -0.5743493437767029, -0.03172479197382927, -0.07311831414699554, 0.1020505428314209, -0.09329096227884293], [0.004080053884536028, 0.2074376940727234, -0.283119261264801, 0.07129433006048203, -0.013403751887381077, 0.08287644386291504, 0.22950926423072815], [0.14512459933757782, -0.2856583595275879, -0.5756189823150635, -0.08464247733354568, -0.14848895370960236, -0.11701931059360504, -0.15260741114616394], [0.4292411804199219, -0.19942724704742432, 0.012725532986223698, -0.022439375519752502, 0.07407951354980469, -0.13284577429294586, -0.019561070948839188], [-0.1406054049730301, -0.091715507209301, 0.05676703155040741, 0.0021179630421102047, 0.034039441496133804, -0.017040224745869637, -0.1680702418088913], [-0.02437155321240425, 0.05258750915527344, -0.030282875522971153, 0.029723811894655228, 0.0021320024970918894, 0.035278987139463425, -0.024984056130051613], [0.20970822870731354, 0.14539121091365814, 0.0067930640652775764, 0.10579752922058105, -0.0175734031945467, 0.019226398319005966, -0.15324969589710236], [-0.5233531594276428, 0.03627413511276245, 0.01431712880730629, -0.02286609634757042, -0.1755780577659607, -0.09512909501791, 0.6341618299484253]], "rec.bias_ih_l0": [0.5122692584991455, -1.650181531906128, -1.0889334678649902, -0.2178078591823578, -0.13071832060813904, -1.7414991855621338, -1.8776919841766357, 0.10887347161769867, 2.073369264602661, 1.2966103553771973, 0.0835365429520607, -0.007105638738721609, 2.2364931106567383, 1.7364758253097534, 0.3190678656101227, 0.09153181314468384, -0.12011370062828064, -0.1482713669538498, 0.13873495161533356, -0.06415795534849167, 0.26850056648254395, 0.8659088611602783, 0.7148792147636414, -0.0064658732153475285, 0.12016624957323074, 0.23795917630195618, 0.10815539956092834, 0.5794227719306946], "rec.bias_hh_l0": [0.5122690796852112, -1.591369867324829, -1.1907124519348145, -0.21782641112804413, -0.130648672580719, -1.746281385421753, -2.0022008419036865, 0.10891269147396088, 2.1516847610473633, 1.3109307289123535, 0.08526630699634552, 0.0026812159921973944, 2.217264175415039, 1.7333269119262695, 0.3290194272994995, -0.0001903100055642426, -0.43138644099235535, -0.3636244237422943, 0.25961440801620483, -0.05805210769176483, 0.2477637082338333, 0.8659085631370544, 0.7536436319351196, -0.012902333401143551, 0.12291472405195236, 0.23825152218341827, 0.14605994522571564, 0.5834013819694519], "lin.weight": [[1.4940372705459595, -0.016521615907549858, -0.598263680934906, -0.8483775854110718, 0.7937974333763123, -0.8427372574806213, -2.120590925216675]], "lin.bias": [0.5628833770751953]}}