{"model_data": {"model": "SimpleRNN", "input_size": 1, "skip": 1, "output_size": 1, "unit_type": "LSTM", "num_layers": 1, "hidden_size": 7, "bias_fl": true}, "state_dict": {"rec.weight_ih_l0": [[-0.03737766295671463], [-0.15861515700817108], [-0.33891117572784424], [0.410420686006546], [-0.062275562435388565], [-0.03882556036114693], [-0.23370318114757538], [-0.06508784741163254], [0.2586185038089752], [-0.23800666630268097], [0.38611671328544617], [-0.11101909726858139], [-0.0002922539715655148], [0.5825018286705017], [-1.5477988719940186], [0.16237545013427734], [0.29513803124427795], [0.6053727865219116], [-0.35597383975982666], [0.4478859603404999], [0.2965487539768219], [-0.05058468133211136], [-0.1994400918483734], [-0.2618134021759033], [0.366078644990921], [-0.07503645122051239], [-0.3124743700027466], [1.1811487674713135]], "rec.weight_hh_l0": [[-0.004389740526676178, 0.1910659670829773, -0.22889761626720428, 0.10159729421138763, 0.056271445006132126, 0.09880123287439346, 0.1741078495979309], [-0.0228134598582983, -0.0840582475066185, 0.9004768133163452, 0.008143511600792408, 0.13807329535484314, 0.034643515944480896, -1.8606789112091064], [0.15787404775619507, -0.004697195254266262, 0.17924842238426208, -0.15132050216197968, 0.01913270354270935, 0.1141388863325119, -0.09327416867017746], [-0.22057729959487915, -0.10828282684087753, 0.2698482275009155, -0.05300654098391533, 0.1112009808421135, 0.03511951118707657, -0.42722681164741516], [0.07751762866973877, 0.03778844326734543, -0.016047950834035873, -0.06242268159985542, 0.14540784060955048, 0.14784018695354462, -0.08517581969499588], [0.19580546021461487, -0.15245863795280457, 0.18961775302886963, -0.244727224111557, 0.30402523279190063, 0.08906105905771255, -0.7324241399765015], [-0.07057085633277893, -0.25932714343070984, -0.09952384233474731, 0.3293442130088806, 0.014043889939785004, 0.42109373211860657, -0.03946369141340256], [-0.006656763609498739, 0.1250115931034088, -0.3086351156234741, 0.06846758723258972, 0.11093856394290924, 0.006871213670819998, 0.044204048812389374], [0.20824728906154633, 1.3250142335891724, -0.005391571670770645, -0.697472870349884, 0.40686434507369995, -0.9045141339302063, -0.31533685326576233], [0.23021481931209564, -0.32522496581077576, -0.04215933382511139, -0.2256445586681366, 0.11120124906301498, 0.20865704119205475, -0.019413767382502556], [-0.12085340172052383, -0.030483325943350792, 0.06829430162906647, -0.1038157269358635, 0.1242833063006401, 0.06709065288305283, -0.2152300924062729], [0.13088342547416687, 0.06297226995229721, -0.06015827879309654, -0.09745889157056808, 0.16061556339263916, 0.18227475881576538, -0.04949085786938667], [0.32408496737480164, 0.6990985870361328, -0.7592617273330688, 0.034943751990795135, 0.07741530984640121, -0.03794373944401741, 1.088020920753479], [0.512820303440094, -0.36742377281188965, -0.2779427468776703, -0.16485072672367096, 0.3341887891292572, 0.3861502408981323, -0.18077890574932098], [-0.7830711603164673, 0.07272960245609283, 1.7580784559249878, 0.12277895212173462, -0.4721752107143402, -0.4330970048904419, 0.09371872246265411], [0.6949664354324341, 0.8695131540298462, -0.341645747423172, -0.16596782207489014, 0.09201426059007645, -0.3455522954463959, -0.3405526578426361], [-0.3560551702976227, 0.1332598775625229, 0.005668113008141518, 0.27710840106010437, -0.09102138131856918, -0.02671416848897934, -0.2514587342739105], [0.2142135053873062, 0.5202341079711914, 0.035783275961875916, 0.18378877639770508, -0.24821174144744873, 0.2367429882287979, 0.787689745426178], [0.14309415221214294, -0.22428302466869354, 0.2180052250623703, 0.05241113528609276, 0.015626637265086174, -0.07821103930473328, -0.7029725909233093], [0.4030188322067261, 0.6101166605949402, -0.16778883337974548, -0.8926976919174194, 0.4671613872051239, 0.4431294798851013, -0.5938955545425415], [-0.1695161610841751, 0.44342494010925293, -0.5530080795288086, -0.054929740726947784, -0.061777513474226, 0.1303035467863083, -0.07995393872261047], [-0.0009818525286391377, 0.20713397860527039, -0.22586220502853394, 0.07944314926862717, 0.04361727833747864, 0.125394806265831, 0.2270253598690033], [0.13434238731861115, -0.24951402842998505, -0.5747660994529724, -0.02282256819307804, -0.0667543113231659, -0.05558057129383087, -0.13529396057128906], [0.375456839799881, -0.2757374346256256, -0.0026565345469862223, -0.08636313676834106, 0.10241910815238953, -0.0926784947514534, -0.02532305382192135], [-0.16289149224758148, -0.07596029341220856, 0.04455318674445152, -0.04240557923913002, 0.11316803842782974, 0.06924964487552643, -0.18634136021137238], [0.08100278675556183, 0.05577373132109642, -0.07370065152645111, -0.06193122640252113, 0.1395333707332611, 0.14046479761600494, -0.03336423262953758], [0.18872928619384766, 0.1584077924489975, 0.04063110798597336, 0.17566022276878357, -0.03166504204273224, 0.3064318299293518, -0.19505853950977325], [-0.44776132702827454, -0.058665234595537186, 0.035258203744888306, -0.014326625503599644, -0.1821865737438202, -0.024918030947446823, 0.5875680446624756]], "rec.bias_ih_l0": [0.5534406900405884, -1.6619871854782104, -1.0608490705490112, -0.12779176235198975, 0.027929548174142838, -1.606101155281067, -1.8919986486434937, 0.22055399417877197, 2.10379958152771, 1.24111008644104, 0.17372213304042816, 0.14057473838329315, 2.248842239379883, 1.7151191234588623, 0.3359905481338501, 0.09286661446094513, -0.11642337590456009, -0.18152305483818054, 0.14706860482692719, -0.07069454342126846, 0.25623592734336853, 0.8009713292121887, 0.7204909324645996, -0.007563651539385319, 0.18666881322860718, 0.2799724340438843, 0.042559824883937836, 0.5595157146453857], "rec.bias_hh_l0": [0.5534409284591675, -1.603340983390808, -1.1589332818984985, -0.12780766189098358, 0.027974234893918037, -1.6107372045516968, -2.0152482986450195, 0.22058528661727905, 2.1818971633911133, 1.2549160718917847, 0.17517413198947906, 0.14663001894950867, 2.230381727218628, 1.7120023965835571, 0.3458535671234131, 0.0012236139737069607, -0.41899970173835754, -0.3946155309677124, 0.26563164591789246, -0.06460744887590408, 0.23574356734752655, 0.800971269607544, 0.7587515711784363, -0.013727088458836079, 0.1889141947031021, 0.2801280915737152, 0.07838127762079239, 0.5633421540260315], "lin.weight": [[1.5075041055679321, 0.001987672643736005, -0.6006751656532288, -0.8723389506340027, 0.8069860935211182, -0.8674838542938232, -2.1038575172424316]], "lin.bias": [0.5681278705596924]}}